{
  "W1": [
    0.02788535969157674,
    -0.09499784895546662,
    -0.04499413632617615,
    -0.05535785237023545,
    0.04729424283280248,
    0.03533989748458227,
    0.0784359135409691,
    -0.08261223347411678,
    -0.015615636062945915,
    -0.09404055611238593,
    -0.05627240503927933,
    0.001071057620672472,
    -0.09469280606322728,
    -0.06023246986267031,
    0.029976887555904635,
    0.008988296120643335,
    -0.055911875591860664,
    0.017853136775181744,
    0.06188609133556533,
    -0.0987002480643878,
    0.06116385036656158,
    0.03962787899764536,
    -0.03194989669640162,
    -0.06890410003764369,
    0.09144261444135623,
    -0.03268109097747465,
    -0.08145083132397042,
    -0.0806567246333072,
    0.06949887326949197,
    0.02074520627337821,
    0.06142565465487604,
    0.045946357338763566,
    0.007245618290940142,
    0.09462315279587413,
    -0.0242931245583293,
    0.010408126254645406,
    0.06588093285059898,
    0.023703950472849206,
    0.07234138006215546,
    0.015470429051352402,
    0.040914367242984695,
    -0.09083512326886756,
    -0.054420344869690634,
    -0.04212240727957857,
    -0.0840416046152745,
    -0.053441822727793964,
    -0.07979971411805419,
    -0.04440527937798158,
    0.027136888852880042,
    -0.027033564205983157,
    -0.025963806576623477,
    -0.05809859384570246,
    -0.04660443559017733,
    0.0873309175424988,
    0.029607077049318697,
    0.021826201133397644,
    -0.06577227036038061,
    0.045825359590069836,
    -0.06731950124761432,
    -0.02410891164847044,
    0.09790467012731904,
    0.02799995197081856,
    0.011389948754929241,
    0.03692285019797492,
    0.06857038403796192,
    0.05519998230924897,
    -0.05419038560717913,
    -0.09357995121919245,
    -0.036909390388183624,
    -0.04645182480485946,
    -0.05780343128273471,
    0.0885819428670109,
    0.07527352529453377,
    -0.03706442384030442,
    0.031087733058975997,
    -0.020873619787867143,
    0.08290951794810872,
    -0.008229629482520234,
    -0.04702396670038951,
    -0.05067449846120331,
    0.012273626832630155,
    -0.04745167829541295,
    0.016917198044708107,
    0.07956457672049541,
    -0.02011989897192054,
    -0.056135848168543334,
    0.09950752129902204,
    0.001905258735292903,
    -0.08181811756524122,
    -0.09057672491505309,
    -0.07807017392986818,
    0.02548920834061802,
    0.05841587287259284,
    -0.015568006640063192,
    -0.08729445876960858,
    -0.023676142698692643,
    0.09922427604801937,
    0.005822869019827398,
    0.09421567552272364,
    0.07215594044689963,
    -0.09770379561143608,
    0.04414436387203893,
    0.036342073805314956,
    0.007394066081759035,
    -0.046634962009491444,
    0.028192359715961623,
    -0.07768956528082471,
    -0.013046949866179006,
    -0.009255258734158708,
    0.09076318550421603,
    0.07517058807563881,
    -0.04732218984978185,
    0.00011722261005966961,
    -0.06426962389397373,
    0.08252556786896412,
    0.07410371396735338,
    -0.04031104171027342,
    0.027789898973201027,
    0.021794042287634457,
    -0.06943214629007305,
    0.05250216001503025,
    0.007875806023925153,
    0.05572529572611165,
    0.006070734439035497,
    -0.09988562077441131,
    -0.03516878859906539,
    -0.09610465152283354,
    0.08581972325292342,
    0.07574437556463684,
    0.0663331058722359,
    -0.03849717491946772,
    -0.0884149667011625,
    0.07560191984080811,
    0.08938988905959883,
    -0.08286930958642424,
    -0.002801907336677248,
    -0.08615749630632329,
    0.05212043305144631,
    0.05316688586139756,
    -0.07432170710004744,
    -0.004943524380253736,
    0.009960718698988777,
    -0.046988674211988185,
    0.0744866082170515,
    -0.015372411959822613,
    -0.05764035891158359,
    0.00785921775589167,
    0.045986213817995225,
    -0.05976978732206082,
    -0.03765674173982101,
    0.09902987133217894,
    0.02997561152789069,
    -0.012379983217099183,
    0.0035151682071181273,
    -0.07579916082634686,
    -0.05506053259368853,
    -0.03238288757050893,
    0.017661743691446657,
    -0.0539770534806846,
    -0.05595652310968811
  ],
  "b1": [
    0.0,
    0.0,
    0.0,
    0.0,
    0.0,
    0.0,
    0.0,
    0.0,
    0.0,
    0.0,
    0.0,
    0.0,
    0.0,
    0.0,
    0.0,
    0.0
  ],
  "W2": [
    -0.08580138279819349,
    0.02622059145401978,
    -0.05421164323776913,
    0.08108400260122559,
    0.0719270800507493,
    -0.08582853002226931,
    -0.05239907312620096,
    0.03379555565925613,
    -0.057152638525912285,
    -0.073537630254995,
    0.0871028481161342,
    0.01420861866505689,
    -0.005465794737641166,
    0.05692388485815067,
    0.0614993995533287,
    -0.06191801712762446
  ],
  "b2": [
    0.0
  ],
  "shapes": {
    "W1": [
      10,
      16
    ],
    "b1": [
      16
    ],
    "W2": [
      16,
      1
    ],
    "b2": [
      1
    ]
  }
}